{"children_left": [1, -1, 3, 4, 5, 6, 7, -1, -1, -1, 11, -1, 13, 14, 15, 16, -1, -1, -1, -1, -1, -1, -1], "children_right": [2, -1, 22, 21, 10, 9, 8, -1, -1, -1, 12, -1, 20, 19, 18, 17, -1, -1, -1, -1, -1, -1, -1], "threshold": [-2.4400218725204468, -2.0, 27.797606468200684, 0.1256195604801178, 0.01219633687287569, 0.0802001953125, 1.845628559589386, -2.0, -2.0, -2.0, 0.002169349347241223, -2.0, 0.47519083321094513, -0.9143240749835968, 7.129770994186401, 0.18177855014801025, -2.0, -2.0, -2.0, -2.0, -2.0, -2.0, -2.0], "feature": [32, -2, 35, 28, 3, 19, 36, -2, -2, -2, 22, -2, 54, 2, 49, 36, -2, -2, -2, -2, -2, -2, -2], "classes": [1, 2, 3, 4], "value": [[86.0, 81.0, 94.0, 69.0], [0.0, 80.0, 0.0, 0.0], [86.0, 1.0, 94.0, 69.0], [86.0, 1.0, 18.0, 69.0], [86.0, 1.0, 18.0, 13.0], [0.0, 1.0, 9.0, 13.0], [0.0, 1.0, 9.0, 0.0], [0.0, 0.0, 9.0, 0.0], [0.0, 1.0, 0.0, 0.0], [0.0, 0.0, 0.0, 13.0], [86.0, 0.0, 9.0, 0.0], [0.0, 0.0, 5.0, 0.0], [86.0, 0.0, 4.0, 0.0], [86.0, 0.0, 2.0, 0.0], [86.0, 0.0, 1.0, 0.0], [2.0, 0.0, 1.0, 0.0], [0.0, 0.0, 1.0, 0.0], [2.0, 0.0, 0.0, 0.0], [84.0, 0.0, 0.0, 0.0], [0.0, 0.0, 1.0, 0.0], [0.0, 0.0, 2.0, 0.0], [0.0, 0.0, 0.0, 56.0], [0.0, 0.0, 76.0, 0.0]]}